{"name":"CHK-Personal-LipMotion-v1","version":1,"input_size":20,"training":{"videos_used":8,"samples":887,"duration_seconds":170.116,"source_files_embedded":false,"training_mae":[0.22752000391483307,0.19457000494003296,0.22791999578475952],"training_r2":[0.19380000233650208,0.06982000172138214,0.13488000631332397]},"feature_context_offsets":[-5,-2,0,2,5],"input_mean":[0.077902,0.088775,0.009905,0.079191,0.090107,0.009936,0.077723,0.088904,0.009864,0.079891,0.086663,0.010094,0.077466,0.092074,0.009843,0.000249,-5.8e-05,0.000103,1.615584,0.199918],"input_scale":[0.101738,0.123289,0.013977,0.108863,0.125244,0.01296,0.101516,0.123767,0.013891,0.107562,0.122329,0.014196,0.101409,0.130153,0.013872,0.049918,0.077643,0.006979,1.051859,0.260046],"layers":[{"activation":"tanh","weights":[[0.10376100242137909,0.34331899881362915,0.12250199913978577,-0.10140000283718109,-0.4203779995441437,0.13359799981117249,-0.17061899602413177,-0.09425199776887894,0.2619140148162842,-0.10182200372219086,-0.3216730058193207,0.3082349896430969],[0.16568699479103088,-0.04337399825453758,-0.02772499993443489,0.24333399534225464,0.451882004737854,-0.233815997838974,-0.11325599998235703,0.008535999804735184,0.3155770003795624,0.12040700018405914,-0.1439339965581894,-0.2717190086841583],[0.5485460162162781,-0.19010500609874725,-0.05462300032377243,0.021618999540805817,0.24855999648571014,-0.12762600183486938,0.2889209985733032,0.27843499183654785,-0.23221200704574585,0.1077369973063469,-0.10182099789381027,-0.2820749878883362],[0.16195300221443176,0.10242299735546112,-0.19724799692630768,0.0013670000480487943,0.10698600113391876,0.03181999921798706,0.015588000416755676,0.1433420032262802,-0.26516199111938477,-0.07808300107717514,0.0002390000008745119,0.06698700040578842],[0.12680299580097198,0.5376499891281128,0.18435600399971008,-0.06945399940013885,0.17785200476646423,0.23876599967479706,-0.15825000405311584,-0.3029870092868805,0.01734899915754795,0.34810200333595276,-0.14724299311637878,-0.2460789978504181],[0.3769559860229492,-0.085657998919487,0.3342759907245636,-0.31380999088287354,0.20743699371814728,0.21806900203227997,-0.22621800005435944,0.07930999994277954,0.46042200922966003,-0.11739999800920486,-0.05658499896526337,0.1823350042104721],[0.16277100145816803,0.0304189994931221,-0.25733399391174316,0.24275699257850647,-0.3957819938659668,-0.3827129900455475,-0.2356709986925125,0.4045200049877167,0.2872389853000641,-0.015236999839544296,-0.32091400027275085,-0.2407429963350296],[0.13401399552822113,-0.04087100178003311,0.03017999976873398,-0.1599539965391159,0.1635430008172989,-0.0017040000529959798,0.344078004360199,0.0503229983150959,-0.21003100275993347,0.03832099959254265,0.06884200125932693,-0.5349940061569214],[-0.30636298656463623,-0.058688998222351074,0.2570900022983551,0.054524000734090805,-0.06015300005674362,0.06232300028204918,0.04797099903225899,-0.012621000409126282,-0.050599999725818634,-0.3530699908733368,0.0807339996099472,0.05140800029039383],[-0.3532699942588806,0.11795300245285034,0.0800900012254715,0.20520399510860443,0.19538800418376923,-0.1372070014476776,-0.1189349964261055,-0.19079400599002838,0.22746500372886658,0.1843309998512268,0.023437999188899994,-0.2704220116138458],[-0.005446000024676323,-0.07968399673700333,0.25983598828315735,0.0843299999833107,-0.07808300107717514,0.049070000648498535,0.29378700256347656,0.2968420088291168,-0.38995200395584106,-0.04343700036406517,-0.15686899423599243,-0.06844700127840042],[-0.017216000705957413,-0.06205900013446808,-0.3361859917640686,-0.3827109932899475,-0.274726003408432,0.31894201040267944,0.20784799754619598,0.008283000439405441,-0.3896999955177307,0.15967200696468353,0.041944000869989395,0.32362100481987],[0.0049669998697936535,0.053902000188827515,-0.18890300393104553,0.14981700479984283,-0.20225100219249725,-0.060339998453855515,0.026312999427318573,0.04065699875354767,0.050988998264074326,0.3911750018596649,-0.4071510136127472,-0.15875400602817535],[-0.284606009721756,0.014464999549090862,-0.1258309930562973,0.05690300092101097,-0.13704100251197815,0.23017600178718567,-0.07342500239610672,-0.1957090049982071,-0.15341700613498688,0.3267520070075989,-0.05262000113725662,0.1360509991645813],[0.3114199936389923,-0.12272600084543228,-0.22161699831485748,-0.05911000072956085,-0.03849999979138374,-0.1345909982919693,-0.1666419953107834,0.33378100395202637,0.17544400691986084,0.3103399872779846,-0.14370499551296234,-0.06585399806499481],[-0.047894999384880066,-0.05874599888920784,0.22206099331378937,0.21092799305915833,-0.4077819883823395,-0.15796999633312225,-0.11650899797677994,0.24268099665641785,0.12950000166893005,-0.2435300052165985,-0.19983699917793274,-0.1433430016040802],[0.34249600768089294,0.09211699664592743,0.09469600021839142,0.08890599757432938,0.4314430058002472,0.12140300124883652,0.28314799070358276,-0.020798999816179276,-0.412663996219635,0.1629520058631897,-0.28756099939346313,-0.03982299938797951],[0.17671099305152893,-0.004387000110000372,-0.22535699605941772,0.19085699319839478,0.19623500108718872,-0.20863699913024902,0.23439499735832214,-0.05562400072813034,-0.2093999981880188,0.030784999951720238,0.012396000325679779,0.042194999754428864],[0.07119199633598328,0.05319499969482422,0.012237999588251114,-0.14886100590229034,0.0945959985256195,0.07839500159025192,-0.26217299699783325,0.08267399668693542,0.13823500275611877,0.4721669852733612,0.08400499820709229,-0.17321600019931793],[-0.1855500042438507,-0.09716399759054184,0.25732800364494324,-0.0860690027475357,-0.22178000211715698,0.2679629921913147,0.04631200060248375,0.34785598516464233,-0.2370859980583191,0.193121999502182,-0.060527000576257706,0.21775400638580322]],"bias":[0.37724098563194275,0.33025500178337097,-0.06334800273180008,-0.03752100095152855,-0.3046860098838806,0.31836599111557007,-0.017434999346733093,-0.3721019923686981,0.1541450023651123,0.07622800022363663,0.08988799899816513,-0.47019699215888977]},{"activation":"linear","weights":[[-0.2792310118675232,0.1789879947900772,-0.07704400271177292],[0.15134599804878235,-0.34284600615501404,0.29631099104881287],[-0.1839590072631836,-0.14581100642681122,-0.275628000497818],[-0.26962000131607056,-0.21526199579238892,0.274944007396698],[0.15242399275302887,-0.12067099660634995,0.04478900134563446],[-0.12437000125646591,0.04559899866580963,0.45857301354408264],[-0.09191799908876419,-0.42648300528526306,0.39307498931884766],[-0.016102999448776245,-0.38697800040245056,0.28083500266075134],[-0.09593699872493744,-0.430866003036499,0.4195919930934906],[-0.2465679943561554,-0.2567110061645508,-0.08033700287342072],[-0.4562849998474121,-0.2203799933195114,0.02788900025188923],[-0.08059199899435043,-0.38665199279785156,-0.07639999687671661]],"bias":[0.5987129807472229,0.2763180136680603,0.3536809980869293]}],"output_labels":["openness","width","roundness"],"blend_with_signal_model":0.6}